222222222 22 0 -152.19320203472265
221222220 20 0 -15.579314212531091
121222020 01 0 -0.5299065310880466
101122020 21 0 -11.827310393737081
222222220 02 1 -175.64631290102474
221222020 00 1 -4.480601818536059
101222020 10 1 -29.57688037799951
101212020 12 0 -20.750660798596254
101210010 10 0 -32.52437148856426
101222020 11 1 -30.25772451061306
101210020 21 1 -4.454084971673749
221212020 00 0 -1.2256024178963305
021212010 01 0 -1.345105601500733
001112010 12 0 -1.4701670727146483
221222020 11 1 -2.7293172361636455
021212020 21 1 -3.0811432861378654
001212010 10 1 -3.4542921270196127
122222220 10 0 -4.106195122618766
122021220 21 0 -1.2731802458878918
122021100 01 0 -4.374634626494598
102011100 02 0 -11.573919407459625
222222220 00 1 -130.19513093117124
122022220 12 1 -7.21135810204337
122021200 20 1 -7.884841452294469
102021100 11 1 -23.61948070761966
222222222 21 0 -198.57904523961867
222222201 20 0 -9.903108210772045
222212001 10 0 2.4980888390732723
221012001 12 0 -1.8585780569094272
211010001 00 0 -17.27817597812421
222222202 22 1 -71.43406423009614
222222001 11 1 -16.596368049939052
222012001 02 1 -48.971659083839526
221010001 01 1 -50.11269941769422
222222222 02 0 -70.5335921250342
210222222 12 0 -6.99051980848671
110220222 21 0 4.7424425658191165
110120202 22 0 1.4102625294589899
220222222 01 1 -111.557822824793
210220222 00 1 -14.3099534525595
110220202 10 1 -15.008810950095292
210220212 20 0 1.229134033900795
210120012 22 0 1.2711526923421026
210220222 21 1 -7.102392216778429
210220012 10 1 -7.414548396438346
220221222 22 0 -9.189230692498716
220221120 11 0 -1.8320181293711086
220201110 00 0 -8.240183471804144
220222222 12 1 -133.25141016215485
220221220 20 1 -13.74242424799357
220201120 21 1 -44.269894366591565
220122222 12 0 -10.029196522557598
220120212 00 0 -5.4682220868943885
020120211 20 0 -5.615347640686175
010120011 11 0 -10.791101795598106
220222222 10 1 -128.7569685617265
220120222 21 1 -21.284173776073157
020120212 22 1 -22.013106714917402
020120011 01 1 -52.937145634049884
120222222 22 0 -3.1138576265016487
120221220 21 0 -3.18527994546532
120121200 20 0 -3.2575124798297597
220222222 00 1 -89.5178954830119
120222220 12 1 -15.288595736950219
120221200 10 1 -15.738678487788391
210120222 21 0 -3.4404833689112735
210220222 10 1 -40.14278100573465
210120202 00 1 -7.264354612611359
220120122 21 0 -5.2838755269878055
220120101 00 0 -15.071048783891584
010120101 11 0 -15.363276198380765
220120222 20 1 -7.082231942572207
220120102 22 1 -21.37031348745937
020120101 01 1 -21.90228621331785
220222122 21 0 -14.350022661132927
220122102 12 0 -14.620430071682893
220222222 20 1 -154.55375382390045
220222102 10 1 -21.361637551182003
220120102 00 1 -7.285878619512083
220222122 10 0 -6.096236904158164
220022121 12 0 -3.837462884075582
120020121 01 0 -3.90391122325436
220022122 22 1 -38.56339877830078
220020121 00 1 -8.853891760579499
100020121 21 1 -49.33595321441352
222221202 02 0 -8.680243080923242
220211202 22 0 -8.821642099068024
120211200 10 0 -8.964184738748214
110011200 20 0 -13.72794706166326
222222202 12 1 -328.7881629829198
220221202 11 1 -33.06919466233503
220211200 00 1 -33.741149323667535
120011200 01 1 -74.60511068507515
122222202 02 0 -11.746877170190487
120122202 12 0 -5.506774243060469
120110202 22 0 -5.587223564643258
222222202 00 1 -250.224468986064
120222202 10 1 -22.845500881271267
120120202 11 1 -23.26873535932727
222212202 10 0 -10.671768756287378
122012202 01 0 -8.37601321403089
102012102 22 0 -8.49211492085545
222222202 11 1 -180.15817854293599
222012202 00 1 -23.452472424242163
102012202 20 1 -23.861686087952258
102012100 02 1 -42.800759090475886
122022120 21 0 -3.4523405486979435
122022220 20 1 -15.029893762261496
122022100 12 1 -15.279348320299164
222222222 00 0 -146.1438980516314
012222222 10 0 -6.227674188024099
012012222 02 0 -7.355508580290169
010012221 12 0 -7.447695688655429
010010121 21 0 -7.540457260639514
022222222 01 1 -259.5023137178924
012022222 11 1 -46.884726516621946
010012222 22 1 -47.61470256270843
010010221 20 1 -48.35032111948015
122222220 01 0 -3.7843687980629612
102221220 10 0 -8.533762074915229
101021220 11 0 -15.435081804179815
101001210 20 0 -7.343923170797613
102222220 12 1 -16.86904392566943
102021220 02 1 -52.04164350268347
101001220 21 1 -17.365165841965915
022222122 01 0 -23.15313900382011
001222122 22 0 -1.097287682159614
022222222 20 1 -176.3951619981755
002222122 02 1 -16.83949392392342
001222120 11 1 -17.079199008198362
222222222 11 0 -320.81642257917923
221202222 22 0 -25.62411815708531
221102220 20 0 -6.946825746359948
221101020 01 0 -6.976212375349013
201101010 00 0 -22.975950000555223
222202222 02 1 -305.5473466754824
221202220 10 1 -82.54444759095719
221102020 12 1 -83.47855835075995
201101020 21 1 -84.41840793631455
222222222 10 0 -39.67206772275163
222022212 02 0 0.4692157133104
220021212 11 0 6.94721457136945
210001212 20 0 2.0852984358634505
222022222 21 1 -111.73125638646452
220022212 12 1 -40.14883756825053
220001212 01 1 -40.6603586479435
220012212 12 0 -0.45989239252717423
220010112 22 0 -0.4644570533195861
220022212 11 1 -19.688618200369763
220010212 20 1 -19.932437774943754
122022222 02 0 -3.036670242129684
120021222 21 0 -3.0661217154422835
120011202 22 0 -3.0957153379993074
222022222 00 1 -132.76742888273827
120022222 12 1 -39.72782530315322
120021202 11 1 -40.20510794951425
222202122 02 0 -26.64139237115394
220102122 00 0 -9.219300890235134
020101122 01 0 -1.8386699560137598
222202222 20 1 -388.6273139565282
220202122 10 1 -65.4241985762566
020102122 12 1 -41.11156531807326
222022221 12 0 -15.884116332062721
212020221 02 0 -4.43408659579853
110020221 20 0 -4.473666988562449
110020011 11 0 -4.513423322658849
222022222 22 1 -186.45895095486034
222020221 01 1 -84.01822536600041
210020221 00 1 -40.93968661191211
110020021 21 1 -41.39483423987723
222201222 20 0 -11.08631552782518
122201022 10 0 -1.8758993290580837
122001021 02 0 -1.8919669159038757
222202222 12 1 -249.63860859922858
222201022 00 1 -20.408087880073403
122001022 22 1 -20.62693980477892
221022222 21 0 -6.999734814914617
221022201 01 0 -7.058358123799524
101022201 11 0 -7.1172259140292855
222022222 02 1 -149.16487870219012
221022202 22 1 -54.14454592937178
201022201 00 1 -40.126383411341784
222012222 02 0 -10.566740194763044
210012222 21 0 -15.346550503807796
210012102 00 0 -12.936084319375327
010012101 12 0 -36.69976604766959
222022222 11 1 -207.9405664641745
220012222 01 1 -59.11472270545162
210012202 20 1 -84.72873783052113
010012102 22 1 -60.30322033983406
122202222 12 0 -40.88196879655499
122200122 22 0 -16.786942258907402
122200110 01 0 -16.909928276847914
101200110 10 0 -12.57789721959035
222202222 00 1 -403.4907171418393
122200222 20 1 -82.2311850933443
122200120 21 1 -82.98754642761817
102200110 02 1 -62.76017100956392
112200222 21 0 -3.727060383493603
112200201 02 0 -13.352220200286869
110200101 10 0 -29.26496066463863
122200222 01 1 -53.535602891511935
112200202 22 1 -21.58324966029322
110200201 20 1 -92.38991494072768
121202220 10 0 -6.7861114446012705
121002210 12 0 -6.834101690147015
221202220 00 1 -41.862788657551455
121002220 21 1 -42.234943557526776
210202122 12 0 -10.314139847244785
210200121 21 0 -10.38508122312577
220202122 01 1 -41.17496883379499
210200122 22 1 -41.5307386460085
210200101 00 1 -72.34320757751613
102200110 10 1 -20.987208203145794
220212222 01 0 8.861724686471026
100212222 21 0 -3.49477275948839
100211202 10 0 -3.51787863216982
220222222 11 1 -174.47496553982202
200212222 00 1 -22.355188562656725
100212202 12 1 -22.54032390950613
100011202 22 1 -22.726222701084833
222222120 01 0 -3.0414559863073913
202212120 02 0 -3.061367265298442
200212110 10 0 -3.08134350767935
100012110 12 0 -3.1013847134501202
222222220 20 1 -141.7756247316687
202222120 11 1 -24.60873924937442
200212120 21 1 -24.80921694865958
200012110 00 1 -25.01050794489925
022122222 21 0 -10.38066630160125
022122102 22 0 -4.33804026885706
012122100 02 0 -4.365720149742427
010121100 11 0 -7.14873771345828
022222222 10 1 -153.33502498679616
022122202 20 1 -49.56982347751483
022122100 01 1 -49.964053755231134
010122100 12 1 -110.3916407891704
212201022 02 0 -8.629611170640956
222201022 01 1 -24.95394217989389
222222222 20 0 -381.78059437194685
222222021 10 0 -40.72093957395356
222012021 12 0 -20.82541656184581
212010021 21 0 -6.067742676820098
222222022 22 1 -477.93895887693236
222022021 11 1 -173.31732909600413
222010021 01 1 -74.77197932112054
212010001 02 1 -75.33744840421963
212202222 22 0 -14.668377741296526
212102220 12 0 -1.8583675361170022
112100220 20 0 -1.4335605324534786
112100010 02 0 -1.4419808405318846
222202222 01 1 -301.8392401324699
212202220 10 1 -25.54771343699863
212100220 00 1 -25.735909585127473
112100020 21 1 -25.924796361322834
222222120 11 0 -12.726906031590314
212202120 10 0 -0.44976889935627984
212002110 00 0 -0.4523800340712997
222202120 01 1 -25.289989978423623
212002120 21 1 -25.47358276956606
002122122 02 0 -1.4776750019205322
002222122 10 1 -24.82826775229434
212022021 12 0 -11.035582857328881
211020021 00 0 -11.094215843727948
222022021 01 1 -45.204617780478316
212020021 02 1 -89.14000048319869
212222022 11 0 -36.52948400305015
212202012 00 0 -19.631274945406656
011202012 22 0 -8.33472053124476
222222022 01 1 -171.8603933345186
212202022 21 1 -46.84024072960986
012202012 02 1 -47.168971153711226
222021021 02 0 -11.776797615149057
210021021 21 0 -11.841186010512876
210011001 00 0 -11.905749952800583
222022021 12 1 -45.88981539298766
220021021 01 1 -46.20469970499083
210021001 11 1 -46.52066070494288
222222012 11 0 -38.86375473348336
012201012 10 0 -11.403274518480528
222222022 21 1 -208.6532367295442
222202012 01 1 -45.2015075987947
012202012 12 1 -45.50388406071976
212202022 12 1 -71.31832450112037
222212022 21 0 -40.61344525460872
222211002 10 0 -18.60242524767352
222011001 01 0 -18.697723868764868
222222022 11 1 -274.64257367261285
222212002 12 1 -65.97351500639878
222011002 22 1 -42.68828384808117
202011001 02 1 -42.962312476327874
222211002 02 0 -8.0605151996214
220211002 10 1 -23.707250796126978
212202210 02 0 -26.211603402450162
210201210 20 0 -7.203509346638323
212202220 21 1 -82.38256168934763
210202210 12 1 -59.007607114086525
222212022 12 0 -34.91821917450571
222110022 00 0 -23.370748148948486
022110021 02 0 -23.47355643845761
010110021 21 0 -2.0779022262049933
222210022 10 1 -83.30904033296733
022110022 22 1 -51.124430610544835
020110021 01 1 -25.28188598858593
222201021 21 0 -8.521825670756172
122201001 10 0 -16.97267937626253
112001001 02 0 -24.154205362431238
222201022 22 1 -25.0755989706271
222201001 00 1 -25.229201055428796
122001001 01 1 -58.38639747203259
010102122 22 0 -7.432439759170373
020102122 01 1 -24.92284676267408
122200221 21 0 -15.867347749989461
122100201 01 0 -8.593822506488722
122200222 22 1 -81.30362716252122
122200201 10 1 -24.351947569561904
210102210 12 0 -15.508012158056497
210202210 10 1 -23.767085176131822
221202120 00 0 -10.927282393026394
221202220 20 1 -41.17812332337032
222202221 10 0 -25.309125778831017
221002221 21 0 -25.425599677876704
211002201 12 0 -25.542340977060565
222202222 22 1 -123.90938722485407
222002221 02 1 -43.95886862779155
221002201 01 1 -44.21225360540081
222102222 21 0 -42.36825346014868
122102202 02 0 -42.55877226903131
222202222 10 1 -314.6790671201379
222102202 00 1 -66.61474186519094
120102202 20 1 -66.9894006105179
222201012 10 0 -12.94796133760313
222001011 02 0 -13.005829249153626
222202012 12 1 -23.793272140364824
222001012 22 1 -23.926381095489848
221222022 21 0 -32.35321792485741
221212002 10 0 -25.961562248855216
211012002 12 0 -26.07532099656304
222222022 02 1 -363.38083157135026
221222002 11 1 -86.32328057055405
221012002 01 1 -50.99268394870576
211010002 00 1 -51.27091362638109
221222022 22 0 -24.659048190969862
211222020 21 0 -24.765551493666795
221222020 01 1 -54.72156516850305
222112002 12 0 -14.64214004970998
212110002 02 0 -14.704646446328839
210110001 00 0 -26.497268980304767
222212002 10 1 -26.778400118318785
222110002 01 1 -26.921027829451454
210110002 22 1 -27.06403436584611
212102022 21 0 -14.439031095742939
211102002 00 0 -14.500019543596121
011101002 22 0 -8.857899690912504
212202022 10 1 -26.83535201277272
212102002 02 1 -57.90448497785878
011102002 12 1 -27.118572763932463
122222022 01 0 -27.627877110885745
101222022 22 0 -27.743011679776597
101110020 21 0 -19.003735487076863
222222022 00 1 -129.3830028547097
102222022 02 1 -53.32791396787893
101210020 10 1 -67.04394070173416
222102012 01 0 -15.247187246740008
202101012 22 0 -15.309739744136813
222202012 10 1 -26.335366258003965
202102012 12 1 -26.470246274356693
202101010 02 1 -26.60547081182394
020110011 01 0 -15.167231495082627
020110021 21 1 -26.629354344675342
222221022 21 0 -14.775963451969655
222221001 02 0 -14.83548388901734
120221001 10 0 -14.895123965134461
110021001 11 0 -14.954883680321004
222222022 12 1 -204.988623048588
222221002 22 1 -26.383259975793983
220221001 00 1 -26.51567261591973
120021001 01 1 -26.64841670195319
222202212 00 0 -9.868463794393753
022202211 10 0 -14.12284466029736
012002211 02 0 -14.179054931761684
222202222 21 1 -246.70291000000543
022202212 22 1 -25.90489927393185
022002211 01 1 -26.033619072182287
010002211 20 1 -26.162657878606893
022222212 12 0 -39.618081104817485
022220211 20 0 -39.773341468812454
022120011 01 0 -39.92890548459098
002110011 02 0 -40.084773152152934
022222222 21 1 -147.04618415376314
022220212 22 1 -82.89620439293518
022220011 10 1 -83.30012884657181
002120011 11 1 -83.7050350638248
012222222 02 0 -13.372285138573497
010221222 21 0 -13.086067701995201
010221102 10 0 -13.136253917510922
010021101 11 0 -13.186536183199884
010222222 12 1 -48.706679427744795
010221202 20 1 -28.15802485112839
010021102 22 1 -28.292270309744016
222201120 02 0 -12.826689561967724
210201120 10 0 -12.871411728013692
110001120 21 0 -16.118860341517383
222202120 12 1 -52.80952806821559
220201120 01 1 -28.180269464683693
210001120 00 1 -28.31335201616731
222221220 00 0 -25.164663497204362
022221120 11 0 -25.25925604169066
222222220 12 1 -266.2383755463445
022221220 20 1 -54.3915392557811
021122202 22 0 -14.863347184856327
021122100 12 0 -14.91479052470013
011120100 11 0 -14.970184313707282
022122202 02 1 -37.749460686731126
021122200 20 1 -26.680597501975914
021120100 01 1 -26.804261751157203
221222010 01 0 -14.62217677105709
101222010 12 0 -14.676083367824054
221222020 21 1 -26.53862264021078
201222010 00 1 -26.66077954505751
101220010 11 1 -26.783216947963577
222122220 00 0 -14.144241784198217
022112220 01 0 -13.881662121807024
222222220 10 1 -143.7038414387197
022122220 11 1 -26.019758984067998
002112220 12 1 -26.138435039853338
222010221 21 0 -13.51947818019059
222010101 02 0 -13.568595226685002
210010101 00 0 -3.568840836821143
222020221 11 1 -27.88121443791384
222010201 20 1 -28.007516493448893
220010101 01 1 -28.13410397735808
222010021 00 1 -68.05051325883895
222222222 01 0 -143.39902787358193
201222222 20 0 -35.135688260087235
201222021 00 0 -35.260655897754326
001212021 12 0 -35.38584538993661
001110021 21 0 -45.602230253364475
202222222 02 1 -277.2529905744225
201222022 22 1 -86.79482795711422
001222021 11 1 -87.17848981615481
001210021 10 1 -87.56299780642236
012222222 22 0 -10.947327696837494
012212220 20 0 -10.98557160726965
012112020 02 0 -11.023882202811507
012222220 11 1 -49.418917411851154
012212020 10 1 -28.900254541046014
010112020 12 1 -29.02549926776809
222222222 12 0 -170.38399469235762
222220221 11 0 -16.894408251547436
212200221 10 0 -21.37332737194643
222220222 22 1 -123.41752357839808
222200221 01 1 -59.82337786203903
222120222 21 0 -36.602090056721956
222110202 00 0 -36.726730283876876
022110201 02 0 -36.85158237791872
010110201 20 0 -41.46017691132181
222220222 10 1 -211.4260627767248
222120202 11 1 -86.80646921140347
022110202 22 1 -87.17393992115406
020110201 01 1 -120.11408345735335
122220222 02 0 -7.10260233093562
120210222 21 0 -11.473923367664602
120210102 10 0 -10.523527916050952
222220222 00 1 -217.39458071858658
120220222 11 1 -28.73626694599685
120210202 20 1 -28.85587666876337
120010102 22 1 -60.8729064046069
201222222 22 0 -10.58246418151196
201212220 21 0 -10.617651070560447
201112200 00 0 -12.63086939464785
201222220 11 1 -30.224495020512055
201212200 10 1 -30.34926060522847
001112200 20 1 -30.47428317364149
122202222 20 0 -11.78263046460765
112202022 10 0 -10.24574551702093
112001022 22 0 -10.279531959115186
112001010 02 0 -10.313374016751963
122202022 01 1 -32.22926465574079
112002022 12 1 -32.36121647134032
112001020 21 1 -32.49343785142521
210220221 21 0 -9.902105375730926
210120201 00 0 -9.934491634982896
210220222 22 1 -32.24649383199815
210220201 10 1 -32.37744392606226
010120201 11 1 -44.17445731294712
222022122 22 0 -9.025442397718047
212022120 12 0 -9.054769567340843
212010120 21 0 -9.084144307392863
222022222 20 1 -112.89259277412711
222022120 01 1 -31.763789173716976
212020120 11 1 -31.89173985659834
212010100 02 1 -32.019947726781965
222120222 01 0 -8.631749718360977
202120221 02 0 -8.659616527415311
200120211 20 0 -8.687528246717942
100120011 11 0 -8.715484876268807
202120222 22 1 -66.41275420140079
200120221 21 1 -33.916188558319696
200120011 00 1 -34.05144740143771
022222221 21 0 -8.2603363546526
012222201 11 0 -8.286790577448556
012201201 02 0 -15.267550494527054
010101201 20 0 -19.184962054933397
022222222 22 1 -114.75612486956312
022222201 01 1 -33.8108675146006
012202201 12 1 -33.94490451904043
010201201 10 1 -34.079206680759
221222022 12 0 -27.421661299326097
221220012 22 0 -16.028295060895935
221210010 01 0 -16.078775599216534
221220022 21 1 -66.58320542580057
221220010 11 1 -66.84333709667641
201210010 00 1 -67.1039759507372
222222102 11 0 -25.605254703384762
222202101 12 0 -7.023268363582549
122200101 10 0 -7.045371476164235
222222202 20 1 -274.3219442685028
222202102 22 1 -73.82561216359352
222200101 00 1 -33.493054104356396
220202112 22 0 -8.788783870854012
220202122 21 1 -74.47731337349435
220202110 12 1 -74.69185199507234
222102222 00 0 -8.822444792070641
022101222 20 0 -9.876669621649949
022101021 02 0 -8.87698837031759
022102222 12 1 -73.32624873207008
022101022 22 1 -32.24647455399421
222021222 01 0 -23.763761529630337
202021122 11 0 -19.800551345062114
102001122 22 0 -19.859984910375374
101001120 21 0 -39.72285548806642
222022222 12 1 -144.09814616001626
202021222 20 1 -64.95579783767995
202001122 00 1 -65.19731365285301
102001120 02 1 -65.43927787317644
122222022 10 0 -5.3871073091457875
121022022 11 0 -4.861280913450188
121002012 12 0 -9.6462730306494
122022022 02 1 -31.462344384793855
121002022 21 1 -31.581182218158997
222122202 20 0 -10.710991866612561
212122002 11 0 -10.743424828725914
211102002 12 0 -10.775906820260449
222222202 10 1 -172.33365888044946
222122002 01 1 -30.81198277483259
211100002 00 1 -31.043651002771853
211220022 10 0 -10.361587193112054
211010022 21 0 -10.392726430837216
221220022 01 1 -32.779973821555295
211020022 11 1 -32.902173058845605
211010002 22 1 -33.02459964355411
122220222 01 0 -9.480427479173192
102220221 21 0 -9.508748381934554
102220222 22 1 -32.26269993657971
102220201 11 1 -32.38208077794387
222021222 21 0 -8.55954676691202
222021201 00 0 -8.585002654026834
022011201 20 0 1.9818754738436408
222021202 22 1 -33.62889754054823
022021201 11 1 -52.49159373421742
220222221 21 0 -19.105098959067064
210222201 00 0 -19.16119603011056
010212201 10 0 -19.217375341964672
220222222 22 1 -175.40887046013435
220222201 01 1 -66.44083181443646
010222201 11 1 -66.68224217091425
010012201 20 1 -66.92409033333803
202221222 10 0 -12.096971677671448
202222222 12 1 -192.1653391422106
201021222 22 0 -16.44326084107529
201021120 00 0 -9.117869368418493
001021110 11 0 -9.144164580057042
202021222 02 1 -69.7222782082394
201021220 20 1 -33.540198396652066
001021120 21 1 -33.66009177166052
202222221 11 0 -17.482225796155905
202102221 02 0 -17.532273642983334
200102121 21 0 -17.582393026136955
202222222 22 1 -91.89451983427183
202202221 10 1 -65.13113509102914
200102221 20 1 -65.36210419871207
120222102 22 0 -10.432687584381906
120222202 20 1 -31.573339268749567
120222100 10 1 -31.68441513467263
221202102 00 0 -19.15365580857241
021102102 12 0 -19.207543096642546
011100102 22 0 -18.468642312827548
222202102 02 1 -66.28334283054971
021202102 10 1 -66.51450577771604
021100102 01 1 -66.74607111842059
220121220 00 0 -9.264981407531497
010121220 20 0 -9.290771183250436
010121010 11 0 -9.316596802994008
220221220 10 1 -33.32389224718684
020121220 01 1 -33.438901280774765
010121020 21 1 -33.554108435006306
222201222 21 0 -20.139820926899105
122201202 20 0 -8.883198611656875
222201202 00 1 -33.274825299038234
122201002 22 1 -33.38887774430993
202221222 20 0 -7.976109423113601
202221012 11 0 -7.998036861356021
201201012 00 0 -8.019994399033257
202221022 21 1 -32.72536826252604
202201012 02 1 -32.83677369094996
001201012 22 1 -32.94836842341535
212201022 10 0 -7.575094155595112
212001021 21 0 -7.5957769969081745
212001022 22 1 -34.79280170663094
212001001 00 1 -34.910245679529396
222222021 00 0 -6.652545124450388
022222011 02 0 -6.670610411789244
020221011 11 0 -6.688700194432978
022222021 21 1 -34.1389819329652
020222011 12 1 -34.25363838269166
222122022 11 0 -8.226349161398979
222102021 12 0 -8.248567514986792
222100011 00 0 -8.2708158326388
021100011 01 0 -8.314460299890541
222222022 10 1 -254.2363630043742
222102022 22 1 -33.97349428765785
222100021 21 1 -34.08702301152122
022100011 02 1 -34.20074110773468
221202222 12 0 -15.671182655527986
221200212 00 0 -27.71845219856612
021200211 01 0 -26.002963267382633
001100211 20 0 -4.837905956341685
221200222 21 1 -100.48904870220434
021200212 22 1 -100.80400378182605
001200211 10 1 -34.14415177133671
222212220 10 0 -13.56641992916855
122012220 12 0 -13.602271728815326
112010220 20 0 -13.638170841985783
222222220 11 1 -104.86384589872135
222012220 00 1 -67.46256175795213
122010220 01 1 -67.68302371069719
112010020 02 1 -67.90384533052087
102021222 22 0 -6.510243973647216
202021222 00 1 -55.33816329470516
101001220 20 1 -192.1127738125745
022221222 20 0 -11.656369076603164
022121022 02 0 -5.588711850226453
010121022 11 0 -5.603409310943468
022222222 12 1 -210.65118598811475
022221022 10 1 -77.01684347819143
020121022 01 1 -34.87856508236093
222102222 22 0 -5.709138576610866
222102210 02 0 -5.717440810465325
222102220 21 1 -76.99129285008247
220102210 01 1 -35.66260811776846
102222222 12 0 -18.813796995887266
102220212 11 0 -16.040646356773937
102200211 10 0 -6.802448148979193
202222222 00 1 -104.11349213547487
102220222 21 1 -64.30088745745142
102200212 22 1 -34.99724117177184
001200211 20 1 -66.97530152406209
222221202 00 0 -7.414913131895661
012221202 11 0 -7.433937917232422
010201101 10 0 -7.472060613282016
022221202 01 1 -36.15527834493873
012201202 22 1 -36.2697843012818
010201201 20 1 -36.38447129470987
221212002 01 0 -6.521749955786479
201212001 10 0 -6.538355295867098
201212002 22 1 -35.72013238459714
201012001 12 1 -63.78950517627605
222122022 00 0 -22.259418228672892
022112022 02 0 -2.9082057936197625
022122022 11 1 -37.063657446653664
020112022 12 1 -54.27684708511666
222202122 01 0 -4.603882146279886
102202122 02 0 -8.227195710702645
100202121 21 0 -4.627163434809118
202202122 00 1 -38.41819360700929
100202122 22 1 -38.537783242423146
222212202 01 0 -6.655400392270001
202212102 02 0 -6.167266416782154
200211102 22 0 -10.360110650376892
100211100 10 0 -6.19825765651957
202212202 20 1 -38.26821755911515
200212102 12 1 -38.38678671367418
200211100 00 1 -38.50553926986434
222212220 12 0 -5.22431404506042
222110220 01 0 -5.237366667195094
202110210 02 0 -5.250435574572613
222210220 10 1 -37.73741222164515
202110220 21 1 -37.85361665549211
221202222 10 0 -6.281609768493336
221002221 12 0 -6.2972259458584725
221002222 22 1 -37.08040760746612
201021220 00 1 -36.91116805166791
122202222 01 0 -9.015811344014507
101202222 10 0 -7.436648972412773
101001222 22 0 -7.454932060714028
102202222 02 1 -36.74042346663931
101002222 12 1 -36.85201162857252
222221220 01 0 0.34536410874607004
102011220 21 0 -7.0356389715554695
202221220 00 1 -36.678727732902104
102021220 11 1 -36.78945590459204
102011200 20 1 -78.6474824213454
012221022 21 0 -6.0971252542442205
012221001 10 0 -6.111933081832018
022221022 01 1 -36.11661764666507
012221002 22 1 -36.224994532940684
010222221 10 0 -7.661343538233166
010012221 21 0 -7.679860373869426
010011201 20 0 -7.698399559337494
010222222 22 1 -35.93326664294028
010022221 11 1 -36.04061017283153
010012201 12 1 -36.148113797472796
212220222 02 0 -16.338556991357663
210210222 00 0 -7.244516893697921
010210122 21 0 -7.261921132217045
010110102 22 0 1.6691741653839052
222220222 01 1 -142.10794989296406
210220222 11 1 -35.85468588905911
010210222 20 1 -35.961158542829786
010210102 10 1 -36.0677890507944
022122021 01 0 -6.32454835833632
002122011 02 0 -6.339651752024169
022122022 22 1 -35.27559771634698
002122021 21 1 -35.37973226551786
202221222 02 0 -7.871137654369239
200221221 10 0 -7.889867303083536
100021221 20 0 -7.908619209253238
100021011 11 0 -7.927393372878337
200221222 22 1 -35.07963813409057
200021221 00 1 -35.18273767626155
100021021 21 1 -35.28598850169329
222122202 11 0 -19.915072138381795
222102201 02 0 -6.976727769259549
120102201 01 0 -6.993211467636483
222102202 22 1 -34.48707891227239
220102201 00 1 -34.58784461143318
002221122 21 0 -8.049867248789894
002211102 02 0 -8.068796971235304
002222122 12 1 -33.783977593847446
002221102 11 1 -33.88225820403098
210120222 00 0 -9.132774176609148
010120212 22 0 -9.154149884165228
010120222 21 1 -33.169229279124174
221220222 11 0 -15.671736793069353
222220222 02 1 -212.22814970572878
212222220 11 0 -9.292340091429699
210201210 00 0 -9.335510022141236
222222220 01 1 -256.8708441012684
021122022 22 0 -10.407409005585185
021121020 21 0 -10.431430714862133
022122022 02 1 -33.02013135182035
021122020 12 1 -33.114407196368056
220222221 20 0 -11.484170809635943
210222021 11 0 -11.510586374941228
220222021 01 1 -32.297655938334835
002212122 22 0 -12.59691563960374
002222122 11 1 -31.475736124902873
002212120 02 1 -31.564965665193874
222210021 02 0 -12.174392243507516
210210021 21 0 -12.202171794645686
222210022 22 1 -33.24666036762717
220210021 01 1 -33.340511161792215
210210001 10 1 -33.43449423332742
222101202 02 0 -11.804509104240118
220101102 22 0 -11.831291872954019
210101100 00 0 -30.902666761623603
222201202 10 1 -103.7323680541536
220101202 20 1 -33.20738286681859
220101100 01 1 -33.3004658845682
022222212 22 0 -10.90729226604603
022222110 10 0 -10.931927587993783
021022110 12 0 -10.956590699362799
022222210 20 1 -32.481420521554675
022022110 02 1 -32.57208738750284
021020110 11 1 -32.66288061842099
122222202 22 0 -17.32229216950525
122222100 11 0 -10.02397859980018
122222200 20 1 -70.16302910928206
122202100 10 1 -33.9443808339371
212202222 12 0 -13.720017311127176
212100222 21 0 -20.65591202863819
212100201 20 0 -9.604068398712618
112100001 02 0 -26.224022188609556
212200222 10 1 -35.63549562609793
212100202 22 1 -35.7340042055869
212100001 00 1 -35.83264875274945
201222222 12 0 -8.664091854130334
101220222 10 0 -8.683399016621939
101010222 21 0 -8.702727667329995
201220222 00 1 -35.0248285191835
101020222 11 1 -35.12111666213203
101010202 20 1 -35.21753697823494
012222222 21 0 -9.126428847986144
011222202 12 0 -8.251957268151676
011220201 20 0 -8.270244148457827
011210001 10 0 -9.903920740736512
012222202 02 1 -36.91354000467269
011220202 22 1 -37.0144655625179
011220001 11 1 -37.11552890269462
122222100 10 0 -7.8347578601682395
112022100 02 0 -7.852024538921866
110021100 11 0 -7.86931022337582
122022100 01 1 -36.910000429623324
110022100 12 1 -37.01023120611035
212222220 12 0 -12.855350182500642
212210220 20 0 -12.883500098518132
211210020 10 0 -12.911680801527593
212220220 11 1 -73.80921481300541
212210020 02 1 -74.0082868234301
211010020 00 1 -74.20762693452176
202221222 22 0 -5.500334371200173
202221210 10 0 -5.512298118337904
202011210 20 0 -5.524274862485027
201011010 00 0 -15.248659447911953
202221220 21 1 -39.511673832364586
202021210 11 1 -39.617390638190926
202011010 02 1 -69.5253731132761
220212222 12 0 -4.555944687281194
120210222 01 0 -4.565800703194894
100210212 20 0 -4.5756673685045035
220210222 00 1 -38.93004804053067
100210222 21 1 -39.033654243671634
100210012 22 1 -39.137398129474455
212222220 20 0 -9.31018524715721
112222020 02 0 -6.187916476111925
110122020 21 0 -3.606591915311053
212222020 00 1 -79.19509995906569
110222020 10 1 -40.45742927322576
222212022 01 0 -14.78998416206449
201212022 22 0 -5.134193303740974
202212022 02 1 -40.16357370858255
201212020 00 1 -40.26947629600228
022221222 11 0 -4.173985360470287
022201212 01 0 -4.182889860042479
002201211 10 0 -4.191803847627013
022201222 21 1 -39.58275753292363
002201212 22 1 -39.68658111465463
002001211 02 1 -57.21999018639316
221200221 20 0 -3.7100954115893967
221200011 01 0 -3.717968290886048
101200011 10 0 -3.7258495145168826
221200222 22 1 -41.50150595720098
221200021 21 1 -41.60979425027514
201200011 00 1 -41.71822363558783
221220222 22 0 -16.752068058584435
221210220 10 0 -16.46761678368358
121010220 20 0 -4.832524894822744
121010010 01 0 -4.842367489976864
221220220 11 1 -108.01066388133277
221010220 00 1 -82.07562458422747
121010020 21 1 -82.27741430396263
122222202 11 0 -20.75354332857856
122202201 12 0 -2.7669418873342315
122202202 22 1 -41.350935967479494
122200201 01 1 -70.95306133598875
022221222 02 0 -2.1458466471405075
020221221 11 0 -5.3011196359540005
010201221 20 0 -5.3098241758869005
020221222 22 1 -82.02713636688071
020201221 01 1 -114.30879702113914
102220122 10 0 -2.811002783867698
102020121 02 0 -2.8168499019633884
102220222 20 1 -40.0832478943499
102020122 22 1 -40.18582814133069
022222122 21 0 -3.2494685585299274
022122102 12 0 -2.3261234900625896
021120102 11 0 -2.3309419734740366
021100101 01 0 -3.7950461774536985
022222102 10 1 -41.99692913843507
022120102 02 1 -42.10385953218112
021100102 22 1 -42.210925883198406
122022222 01 0 -3.205054791677595
102021222 02 0 -1.8420044241900524
100021122 22 0 -1.8458004137537234
100021110 11 0 -1.8496003106664018
102022222 12 1 -41.91786180903438
100021222 20 1 -42.02405014346813
100021120 21 1 -42.1303728084957
222221202 11 0 -31.117853068585745
222101202 00 0 -9.834003975836522
012101202 20 0 -1.35557810553845
022101202 01 1 -41.9413011892544
012101002 02 1 -42.04688025684209
102022122 22 0 -1.867597706996552
101022120 11 0 -1.8713917084709442
101002110 12 0 -1.8751895597692518
102022222 20 1 -41.05666404862786
102022120 02 1 -41.15924155781185
101002120 21 1 -41.26194704891618
222202122 21 0 -12.972893161673488
222202101 00 0 -0.8805179466086941
022102101 01 0 -0.8822976691392872
022202101 10 1 -40.563345476055254
211220220 10 0 -1.893711272110657
211010220 21 0 -1.8975234730023511
221220220 01 1 -39.759933225497576
211020220 11 1 -39.858409802588085
211010200 20 1 -39.95700818125819
201222222 00 0 -4.378924392597783
001122222 22 0 -0.8369713787732659
001122210 11 0 -0.8387007696704211
001222222 10 1 -69.22191871286661
001122220 21 1 -69.36554249231304
221022222 00 0 -6.451554621613025
011022222 21 0 -1.9162113897695148
011012202 12 0 -1.9200380715720702
021022222 01 1 -40.459284780340845
011022202 11 1 -40.55863228077626
011010202 20 1 -40.65810160524659
222221022 00 0 0.2811919083009927
022221012 01 0 -0.9255500197329316
002211012 02 0 -0.9273909939568993
022221022 21 1 -58.709935428869635
002221012 11 1 -41.96459794748352
222120222 11 0 -6.7743076907520345
222100212 00 0 -2.436917726672273
012100212 02 0 -2.4417456952298697
010100112 22 0 -2.4465784415891023
222100222 21 1 -84.47191197128679
022100212 01 1 -41.76367435888016
010100212 20 1 -41.86522732895681
222012222 12 0 -5.03626247134867
221010222 20 0 -1.45516770589501
211010022 00 0 -1.4580364438994948
222010222 02 1 -41.063842965128856
221010022 01 1 -41.1633313428842
220122222 01 0 -8.733210243516858
100122222 22 0 -2.4725738381989735
100122210 11 0 -2.477429161209071
200122222 00 1 -40.35782660980165
100122220 21 1 -40.45525041650942
100102210 20 1 -40.552791672049885
212102202 00 0 -1.9841833856265678
012102201 20 0 -1.9880644279965127
012101001 02 0 -1.9919492622984276
222102202 01 1 -42.25065345869211
012102202 22 1 -42.352156493494
012102001 12 1 -42.45378130758174
222221220 10 0 -13.262670431239847
221021220 00 0 -3.7449820446935598
021011220 21 0 -3.750861829444811
011011200 20 0 1.4440548973163243
222021220 02 1 -74.32599232827921
021021220 11 1 -74.47877110461896
021011200 01 1 -64.16703141151673
102212202 22 0 -1.0026464108765323
102211200 10 0 -1.0045885826459724
202212202 00 1 -42.04690837000071
102212200 12 1 -42.14696046639052
222102210 00 0 -0.006570558857836195
222220212 10 0 -4.01286749536611
222020211 20 0 -3.038356172103242
221020011 11 0 -3.044181442449726
222220222 21 1 -258.7441570756205
222020212 22 1 -80.55314200615794
222020011 02 1 -80.74312934868544
212202102 22 0 -12.114278430489504
212102100 02 0 -3.053055232643442
222202102 01 1 -70.02991786967348
212202100 10 1 -39.287912897103524
210102100 00 1 -39.379975930330765
222201222 01 0 -6.1362567413629785
102201222 22 0 -5.133546504960786
101201220 10 0 -3.5825088229378035
202201222 00 1 -73.16456277815904
102201220 02 1 -41.16267785302009
221222220 12 0 -2.0757968341140054
221202210 01 0 -1.5918854459954652
201102210 20 0 -1.5948819355837929
221202220 21 1 -40.81842693121099
201202210 10 1 -51.27098452785124
201102010 12 1 -41.007400877403306
221201202 10 0 -0.6012543319232642
221001102 00 0 -0.6023808034926139
222201202 02 1 -40.192192321532886
221001202 20 1 -40.28474771362425
021001102 22 1 -40.37740955240013
222221202 20 0 -1.104315113941681
221221002 00 0 -0.09828548239508628
021121002 11 0 -0.09846893635871284
222221002 02 1 -42.06536716305313
021221002 10 1 -42.16179204182547
021101002 01 1 -53.3186805675827
222202212 12 0 -10.747015378308037
222100212 22 0 -1.3502999211116782
222100110 00 0 7.807321276643954
222200212 10 1 -207.7762652108666
222100210 20 1 -175.77899666438017
222102222 12 0 -0.9147782827501266
221100222 21 0 -0.5997175229439796
121100202 20 0 -2.3632431674722394
222100222 02 1 -68.57895470961807
221100202 00 1 -40.81925039401428
121100002 01 1 -40.91196870689607
212220222 20 0 -7.132707625592739
212210022 21 0 0.9124291410556413
112210002 10 0 0.9141118131576063
212220022 11 1 -42.10226116923525
212210002 00 1 -42.197569030469175
112010002 22 1 -42.29298464507919
222222012 22 0 -0.006032020106785163
212222010 12 0 1.417188999433454
112220010 10 0 1.928238051691332
222222010 01 1 -85.57124986059905
212220010 00 1 -43.58666148322234
112020010 02 1 -43.6847743649232
222220212 11 0 -5.483863146591165
221222220 21 0 -1.0056413562815725
221222100 12 0 0.9693283632279427
211220100 10 0 0.9710899773366479
221222200 20 1 -43.47600775982368
221220100 01 1 -43.57289019833396
211020100 00 1 -43.66988046370952
221222022 11 0 -9.131198586992621
211202022 00 0 0.5931930449753855
011201022 22 0 0.594484130361369
221202022 01 1 -44.163156584514205
011202022 12 1 -73.91697712730088
022222221 01 0 3.0356157655513805
002222121 02 0 -0.00747437038296922
002222221 20 1 -43.45201640329062
201201222 22 0 -1.5111255099763383
202201222 02 1 -43.13704507531174
201201220 00 1 -43.23190385937423
220222212 01 0 -10.549186002505769
100222212 10 0 -1.017543109162483
100022211 11 0 -1.0193593392503566
100001211 20 0 5.27478438003553
220222222 21 1 -193.04610117577207
200222212 00 1 -43.01053351406618
100022212 22 1 -43.10469995225504
100002211 12 1 -43.19896936085201
222220221 20 0 -0.5185966489428319
222220011 00 0 -0.5195190082963288
021220011 11 0 -0.5204421871605791
222220021 21 1 -42.88127395968627
022220011 02 1 -42.97474809862613
021200011 10 1 -43.06832400581741
022121022 21 0 0.4811831245473944
022121002 11 1 -42.34312996449905
212020221 20 0 1.4890512813558776
211020021 11 0 1.4916786320252653
122100210 02 0 0.4951503150285417
222100210 00 1 -42.90197918793325
212120010 02 0 -0.5084018265959431
212220010 10 1 -42.17304249756308
222222102 22 0 -26.681350710458297
122222100 02 0 -14.466805206513431
120212100 10 0 -2.570253006931435
110012100 12 0 -2.5747225840285655
222222100 00 1 -108.72397902001042
120222100 11 1 -83.60256878077223
120012100 01 1 -83.78017726080104
022122222 11 0 -2.479150088489734
021101022 22 0 -1.0287593163678141
022101022 02 1 -41.29063402702565
220222122 11 0 -9.735624322773491
220201110 01 0 -2.9205525327208828
100201110 10 0 -1.5483576177028495
200201110 00 1 -42.40209603220776
222022221 11 0 -1.3418917382504765
222002211 12 0 -0.05336882938398796
222002221 21 1 -41.42683919551827
220212222 22 0 -2.560418155152137
210212220 10 0 -1.5570833435957858
210012120 00 0 -1.5597438870553588
010011120 21 0 3.0345079189028024
220212220 01 1 -41.09478842760719
210012220 20 1 -41.18098617724389
010012120 12 1 -41.26727423358521
021222222 22 0 -11.061325101168869
021221220 11 0 -0.5652871409159639
022222222 02 1 -137.91682148801516
021222220 12 1 -40.435932789289474
122102022 22 0 -1.5732834862253324
112102020 21 0 -1.5759534619627458
122202022 10 1 -39.600764094701084
122102020 01 1 -39.6833086561441
110212020 12 0 -2.5934471533849752
110222020 11 1 -38.92520473375276
100202112 10 0 -4.116927526097208
100001112 22 0 -4.123861297544513
102202222 20 1 -63.75921787776029
100202122 21 1 -38.660588497774135
100002112 12 1 -38.74058969417701
212221020 00 0 -3.139644992664242
012221010 10 0 -3.1449150630633125
212222020 12 1 -37.89670365246908
012221020 21 1 -37.974881462852125
212200221 02 0 -4.165787451701543
210100221 20 0 -4.172756563744417
212200222 22 1 -37.12735503912595
210200221 10 1 -37.20370947662726
122200212 10 0 -13.835145687264658
122200222 21 1 -36.35254265777534
202212222 21 0 -6.219397270919708
201212202 10 0 -6.2297499903450175
201011202 22 0 -6.2401113191004125
202222222 11 1 -45.1932403895596
202212202 02 1 -35.49757857796081
201012202 12 1 -35.57020787576093
201011200 20 1 -35.64291139869933
101222220 11 0 -5.764604472670845
101202210 10 0 -5.774160383957136
102222220 02 1 -41.74592041825902
101202220 21 1 -37.366583394648956
101002210 12 1 -37.44264766686698
120222222 10 0 -4.799564344592184
120012222 22 0 -4.8074942306333295
110012220 12 0 0.21738575514483038
120022222 11 1 -36.590939060679595
120012220 01 1 -48.43406024298436
222222021 11 0 -14.31845731216744
221202021 01 0 -5.844231760505949
201102021 21 0 -5.8538479361907
222202021 02 1 -35.80988392157508
201202021 10 1 -35.882336880136236
222222120 00 0 -6.8763934733900935
022222110 02 0 -6.887680124709746
020221110 11 0 -6.89897603117603
022222120 21 1 -35.02341797736393
020222110 12 1 -35.09406529774662
021221022 22 0 -7.937839323229763
021211020 10 0 -7.95081494725696
022221022 02 1 -34.231541228074434
021221020 11 1 -34.30038292256205
001222212 22 0 -8.994709356051217
001221210 11 0 -9.009364684547945
001222222 21 1 -46.483436289139426
001222210 12 1 -33.50128975449979
202122222 12 0 -10.53954029357679
202120221 00 0 -10.556670791024649
002110221 20 0 -10.57381519874244
202222222 10 1 -60.30798456351768
002120221 11 1 -33.19578928151832
002110021 02 1 -33.26208140536389
212100210 20 0 -10.152445625149742
211100010 00 0 -11.594719017579418
222100210 01 1 -32.95437098207449
212100010 02 1 -33.019919192599524
122220222 11 0 -20.514089297636545
112200222 20 0 -9.213308598078118
112200022 02 1 -32.21098740629966
121202202 01 0 -8.253034337464156
122202202 02 1 -33.34264629569391
222210222 20 0 -9.78038972025471
222110022 01 0 -9.79608228045985
102110022 22 0 -9.811787419871553
102110010 02 0 -9.827505138489848
222220222 11 1 -82.47524889555315
202110022 00 1 -33.03370156960737
102110020 21 1 -33.098824671733475
022222212 11 0 -8.855775753346173
022202112 22 0 -8.869928009584207
022202212 20 1 -32.22532238040713
222201102 22 0 -10.415658252223485
212201100 02 0 -19.513615638045785
222201202 20 1 -31.846180690246925
222201100 01 1 -31.908654791351125
210201100 10 1 -62.92524358604333
221222202 10 0 -8.380010539786662
121022202 01 0 -18.30144862075408
101021202 22 0 -18.330260857649396
101011200 20 0 -18.359095758148033
222222202 02 1 -164.32563491172516
221022202 00 1 -62.236943235696884
101022202 12 1 -62.35752413429087
101021200 11 1 -62.47822173837654
212202100 12 1 -31.393007290951537
222200212 00 1 -30.572436466776466
202212012 22 0 -10.180406156496005
202211010 10 0 -10.19639422809149
202212022 21 1 -30.185240742716257
202212010 12 1 -30.243654354103814
102200112 02 0 -9.270243335396566
102200212 20 1 -29.47207356397687
100200112 22 1 -29.528832479217538
221222202 00 0 -8.360909203433671
021122202 12 0 -8.370057892123631
011120202 20 0 -8.383059921841337
011110002 22 0 -8.396072042385352
021222202 10 1 -55.15043851367744
021120202 01 1 -30.937349152160795
011120002 11 1 -30.996474507338284
212202222 00 0 -7.419023377056877
012202221 10 0 -7.430512377855856
012001221 20 0 -7.442010267630293
012202222 22 1 -30.11107411458071
012002221 12 1 -30.168455853097484
022101102 22 0 -8.494282652155471
022101202 20 1 -29.335211811776052
222011220 21 0 -10.036686912915846
122011200 02 0 -10.052122030840463
120011100 01 0 -10.067569008248691
222021220 11 1 -28.940959274685664
222011200 00 1 -28.99579765040611
120011200 20 1 -29.050687931830034
021222210 20 0 -9.10937103817524
011222010 10 0 -9.123326411140372
021222220 21 1 -56.900574949862886
021222010 01 1 -28.20999109253795
222122022 12 0 -21.37387078606254
122120022 22 0 -21.406487789963727
112120020 02 0 -21.439129662089478
222120022 00 1 -53.775958742429104
122120020 01 1 -79.53036636619214
222221001 00 0 -12.808205085158875
022211001 02 0 -12.82764827793587
010211001 10 0 -12.8471062171617
222222001 12 1 -26.10682919931169
022221001 11 1 -26.15569550438976
020211001 01 1 -26.204607500262682
110222100 11 0 -12.418261217573951
110201100 10 0 -12.43702700442177
120222100 01 1 -25.84507774558646
110202100 12 1 -25.89322878823951
221102202 00 0 -11.987373317173587
011102202 12 0 -3.749816402957942
222102202 02 1 -25.484089069253187
021102202 01 1 -36.736910267705674
011100202 20 1 -36.79754172080801
212100102 02 0 -11.089913570796803
222100222 01 1 -56.678729842410235
212100202 20 1 -24.715690962638973
210100102 00 1 -24.761397269961748
221201022 22 0 -10.135346520050888
211201020 00 0 -10.150513516089157
221202022 12 1 -25.856633407876345
221201020 01 1 -25.904317368995503
222202221 20 0 -11.183873298550198
212202021 02 0 -12.519255567173268
222202021 01 1 -54.72228938474215
222212100 10 0 -12.255221624897773
122012100 12 0 -12.27346534641433
222222100 11 1 -24.08443259608311
222012100 00 1 -42.63072229526261
122010100 02 1 -24.17289692050811
222222210 20 0 -42.84602009801978
122222010 12 0 -42.90919945599667
122210010 10 0 -42.9724253630734
222222220 21 1 -168.33408348382076
222222010 00 1 -105.79516235498735
122220010 11 1 -105.98705510581533
122010010 01 1 -106.17912173770954
122200221 10 0 -9.443773592743122
200221212 00 0 -9.547461846557582
200222212 12 1 -27.9452853916694
202222221 21 0 -10.57843822297188
201222201 11 0 -10.59394344364407
202222201 02 1 -27.042648583876257
221010210 00 0 -11.661942966166162
221010220 21 1 -26.183609888482934
021010210 01 1 -26.23068153720972
122102202 01 0 -9.766803898423017
122202202 10 1 -28.528381194580522
222201201 02 0 -11.312323050558131
220101201 00 0 -11.328723661744116
222201202 22 1 -28.12500684716119
220201201 10 1 -28.175162890427966
020101201 01 1 -28.225363616138665
122222022 02 0 -10.375100326150756
120222012 10 0 -10.390098662214388
120022011 12 0 -10.405107831312375
120222022 21 1 -27.322337229910524
120022012 22 1 -27.370888685872277
120020011 11 1 -27.419483241217954
202222212 20 0 -9.432270583472244
202212012 02 0 -9.445866647413869
200211012 22 0 -1.557114095494165
202222222 21 1 -54.097330230179544
202222012 11 1 -28.520350893056808
200212012 12 1 -28.570851725830885
200211010 10 1 -47.49517208566484
212202021 12 0 -8.994594953331141
112200021 21 0 -17.07401636368297
212200021 00 1 -59.76395720215072
112200001 10 1 -59.86913190273012
212220021 11 0 -8.553547541730735
212220022 22 1 -29.932722190126754
222222210 11 0 -7.599705722157737
212202210 00 0 -7.61055082348568
222202210 01 1 -29.140003507488668
222210222 01 0 -9.132988877901294
202210221 21 0 -9.145994200395071
202110201 02 0 -9.159008776053204
200110101 00 0 -9.172032604875678
202210222 22 1 -28.736910073055427
202210201 10 1 -28.787171384089287
200110201 20 1 -28.83747661064176
120202122 22 0 -8.206893706887845
220202122 00 1 -27.934725363180835
120202120 10 1 -27.98341332843417
222122202 22 0 -7.227338785148851
222112200 02 0 -7.23757218391725
220112100 00 0 -7.247812822444226
222122200 11 1 -29.08440075482668
220112200 20 1 -29.134960329387958
020112100 12 1 -29.18556381152593
200122212 12 0 -6.2743333988919145
200120112 00 0 -6.283186072780856
200122222 21 1 -30.29037471814232
200120212 20 1 -30.342848289457432
022212222 22 0 -12.283191182228364
022211220 01 0 -12.30037690790471
002211120 21 0 -12.317574647788343
022222222 11 1 -136.56384321812095
022212220 12 1 -59.20435281443587
002211220 20 1 -59.3059433962483
002211100 02 1 -59.40762106559547
222222201 02 0 -6.38742459087145
220222101 12 0 -6.3963611754254455
210220101 11 0 -6.405304007154943
220222201 20 1 -30.849248518235058
220220101 01 1 -30.902185871895387
222012021 21 0 -4.96171225911186
221200212 10 0 -3.9920631983682915
222200212 02 1 -63.232240754500985
220222212 20 0 -5.503824796449858
220122012 00 0 -5.511434646625167
020122011 12 0 -5.519049754037217
220222012 10 1 -30.579049914599608
020122012 22 1 -30.630900774157443
021022221 11 0 -4.545420544399978
021022222 22 1 -45.69158173498241
021002221 12 1 -29.833660856402695
222202221 01 0 -3.555187538518621
201202221 10 0 -3.560076073573534
202202221 02 1 -30.93782855538454
201002221 12 1 -30.98997827820956
102101220 21 0 -2.574161747538296
102201220 10 1 -32.1517478219718
212010222 22 0 -3.5888651742431965
212010120 00 0 -3.5937730234808805
222010222 01 1 -31.25645950553692
212010220 20 1 -31.308881231348593
012010120 02 1 -31.36134687984632
222202212 01 0 -1.057972293104644
202202112 02 0 -2.6044141324063244
202202212 20 1 -32.46976002630607
200202112 22 1 -32.524034584368586
221210022 21 0 -2.1096250904054386
221210001 00 0 -2.1124963048951857
221220022 11 1 -34.13439884614278
221210002 22 1 -34.19131321532998
021210001 01 1 -34.248274993404465
220022211 00 0 -1.1199204477064664
220022212 22 1 -33.359010220652095
020022211 20 1 -33.41444687120062
222202122 10 0 -3.3061111785962645
212002122 00 0 -0.1204087557771244
012001122 22 0 -0.12057174561400913
222002122 01 1 -34.528780502995296
012002122 12 1 -34.586018421897485
222222210 02 0 -1.123604414716413
120222210 10 0 -1.1251222860931716
120022110 12 0 -1.1266411820203093
220222210 00 1 -33.697322466325545
120022210 20 1 -33.75304353571355
222221022 01 0 -2.1323811016290826
201221022 11 0 -2.1352539623362397
201101022 21 0 -2.1381287569785754
202221022 02 1 -32.8613179859677
201201022 10 1 -32.91552221261104
220222221 00 0 -3.1465759368917983
020222221 12 1 -32.020767061934315
220221222 21 0 -4.166188920478373
220221102 01 0 -4.171771752576484
220221202 20 1 -31.17566969423791
200221102 11 1 -31.226840255500452
200211100 10 1 -31.27805277704283
122002122 02 0 -3.6887906126618857
110002122 22 0 -3.693717210594036
222002122 00 1 -32.88225106700926
120002122 01 1 -32.936046151787956
110002120 12 1 -32.98988520476018
222022122 21 0 -1.9566376691355423
222012102 12 0 -4.514265455896762
222010101 01 0 -2.713059071104984
222022102 11 1 -81.38188359383331
222010102 22 1 -32.146762216153334
202010101 02 1 -32.19913982411543
220222212 12 0 -2.9730476893430824
220220211 20 0 -2.976982992607203
210220011 11 0 -2.980920898696892
220220212 22 1 -66.69453872881226
220220011 01 1 -66.80246023783167
022212222 02 0 -3.227427787995273
020212221 21 0 -3.2317039422637373
020112201 12 0 -3.235982927485054
020212222 22 1 -32.96495444070249
020212201 10 1 -33.01840389190417
021011200 20 1 -32.27981762926708
121200222 21 0 -2.766346932134833
121100001 01 0 -2.773612449511237
221200222 00 1 -33.04392118245828
121200202 10 1 -33.09702510508246
121100002 22 1 -33.150171664336554
021100212 01 0 -2.282269780541028
001100112 22 0 -2.2852541146852627
021200212 10 1 -32.80425078539339
001100212 20 1 -32.85675858137049
212002221 02 0 -1.788994734103758
110002221 21 0 -1.791327951637557
110001201 20 0 -1.7936626896780643
222002221 01 1 -32.45710778801563
210002221 00 1 -32.50893549678963
110002201 12 1 -32.56080455196074
222222021 01 0 -1.6409223838028686
202122021 11 0 -1.6430372526254158
102102021 02 0 -1.6451534835335937
202222021 10 1 -62.43812060179721
202102021 00 1 -62.5366241864485
122010102 02 0 -1.8071530905356088
222010102 00 1 -30.85852738522701
212100222 20 0 -1.3090024209869862
212100012 00 0 -1.310695278774567
012100011 02 0 -1.3123892304928648
212100022 21 1 -32.55858010291856
012100012 22 1 -32.61007646514292
022121220 11 0 -0.3136004315431554
022122220 12 1 -31.710029213736792
212202222 20 0 4.782548334987651
212202022 22 1 -61.59762455072832
220022121 00 0 -2.826357782207487
020012121 21 0 -2.8299871337209663
020022121 11 1 -30.447184771578378
020012101 01 1 -30.495038885644355
222220122 21 0 -4.137173753405083
222210102 01 0 -3.2050193405728855
202210101 10 0 -3.209107355113124
222220222 20 1 -122.43793879246287
222220102 11 1 -59.19095408648219
202210102 22 1 -59.28336933957905
202010101 00 1 -59.3758566820305
212222202 00 0 -4.293446359706703
012122202 02 0 -3.2470141046887906
010122102 22 0 -3.251130573018211
222222202 01 1 -66.00448813473177
012222202 10 1 -60.3450865592873
010122202 20 1 -80.38757806560719
212202021 00 0 -0.367467433536263
012202011 10 0 -0.36793272938525134
012202021 21 1 -30.83836079814604
222222120 02 0 -1.8695060867444924
200101110 00 0 -1.8805950423462536
220222120 12 1 -30.429269105657607
200201110 10 1 -30.523404452704234
220221222 00 0 -0.8788109727250021
020221122 22 0 -1.8472009792530026
020121120 01 0 -1.8494781145736168
020221222 20 1 -29.61459638127635
020221120 10 1 -55.58556566092213
122100222 02 0 -1.8881309040853165
110100222 21 0 -1.8905021828521242
122200222 10 1 -28.748566273953315
120100222 01 1 -28.79277782647579
110100202 20 1 -28.837023348689055
212202022 02 1 -29.610909173101653
021222210 12 0 -1.4033196294579067
021220110 11 0 -1.4050677695929872
021220210 20 1 -28.78756839754741
222012201 01 0 -2.414055869278337
201012201 20 0 -2.417055627757933
222012202 22 1 -27.872286544740046
202012201 02 1 -27.914693973443192
221222010 11 0 -1.9211013584790595
211202010 12 0 -1.9234826428597263
222222010 02 1 -29.5436363334683
221202010 01 1 -29.58845033739414
211200010 10 1 -29.633298304187694
012222102 22 0 -3.3737338818159395
012221100 10 0 -3.3778764002980153
011021100 11 0 -3.3820214605401757
022222102 01 1 -29.21855753031723
012222100 12 1 -55.60756762525628
012021100 02 1 -55.69118198251204
222122220 11 0 0.0703862713047102
211100220 21 0 -0.933121502938011
211100100 00 0 -1.4427521603491862
222102220 01 1 -28.89098033632587
212100220 02 1 -28.934540044180622
211100200 20 1 -53.4326994991076
222120102 01 0 -0.9373875260912623
202120101 11 0 -0.9385359333662531
222220102 10 1 -27.18604350509271
202120102 22 1 -27.226817467876177
012222202 20 1 -26.803966019107662
022102221 12 0 -1.9545165283590347
021100221 21 0 -1.9568979067898913
022102222 22 1 -26.460111047660913
022100221 02 1 -26.499589014642098
021100201 20 1 -26.5390964098506
122220222 22 0 -0.9616161711756611
122120220 20 0 -0.9627849540166721
112120020 11 0 -0.9639544467166904
122220220 10 1 -25.61521886067079
112100020 02 1 -25.691454588947536
122222220 02 0 0.5300687701402277
120122220 21 0 0.03617690654206307
120112200 20 0 0.03622074404975473
120222220 10 1 -26.770775361245075
120122200 11 1 -26.810479879871004
220222122 00 0 -0.9661142744912541
020222122 12 1 -25.887012024326893
221122200 01 0 -1.975590651324124
221222200 10 1 -24.999064094678374
201122200 11 1 -25.035976698134572
001112200 12 1 -25.07291653331593
212020212 20 0 -0.9815110699879299
212020011 11 0 -0.9826918350781679
222020212 01 1 -26.149827749759616
212020012 22 1 -26.188325834721017
222212202 02 0 -0.20827339424802693
120212202 10 0 -2.488649804458242
110012202 22 0 -2.491636482622735
220212202 00 1 -25.76099841834494
120012202 01 1 -25.798840496856272
110012200 12 1 -25.836710349370172
021222222 10 0 5.686394080918373
021021222 22 0 -1.9988088789763638
011021220 21 0 -2.0012005136760105
021022222 12 1 -25.408137755522596
021021220 01 1 -25.445352159552414
011021200 11 1 -25.48259379695509
220112220 21 0 -1.007193911167875
220212220 10 1 -24.554232657861068
220112200 12 1 -24.59009133531602
202222212 22 0 -0.5054290800360539
202212210 12 0 -0.5060313189817961
202110210 00 0 -0.5066339165098207
002110110 02 0 -0.5072368726201307
202222210 11 1 -26.16335340310239
202210210 10 1 -26.201478503187484
002110210 20 1 -26.23963136089916
110222220 12 0 0.4945224706782436
120222220 01 1 -25.313109142590587
211100202 22 0 -1.007288730261672
221100202 01 1 -24.918440167663416
222222102 00 0 -0.008501934061307503
022212102 10 0 -0.008511986598485954
012012102 12 0 3.348916307825793
022222102 11 1 -24.02400042467041
022012102 01 1 -24.058754851121883
012010102 02 1 -53.850156581508024
222222021 12 0 4.6500686262599285
222120021 11 0 0.9949927927772879
122100021 02 0 0.9961657874208472
222220021 10 1 -25.166059026311185
222100021 00 1 -25.202360585281113
011122200 11 0 -0.0038522984624501655
021122200 01 1 -24.307094803757042
212221002 10 0 -1.0073942620687486
112021002 11 0 -1.0085763027556784
222221002 01 1 -23.374165545506692
212021002 00 1 -23.407737053634627
112001002 02 1 -23.441332653264613
222220122 22 0 -0.008596423107137485
222120120 11 0 -0.008606492123090503
212100120 21 0 -0.008616567032525668
222220120 10 1 -24.5114655660154
222100120 01 1 -24.546569701247936
212100100 00 1 -24.58169895571855
220222212 11 0 0.9937038146969678
220202112 12 0 0.9948650226782008
120200112 10 0 0.9960269087370803
220202212 20 1 -25.654894051241182
220200112 00 1 -25.691530810660822
222202122 22 0 -0.5022386909288244
220101120 01 0 -0.5034100927256058
220201120 10 1 -25.296602771613227
200101120 21 1 -25.332624985309103
222202221 12 0 -0.0011028407226468806
222200211 02 0 -0.0011041227227976957
210200211 00 0 -0.001105405467647036
010100211 20 0 -0.0011066889571976768
222200221 21 1 -46.4888849057507
220200211 01 1 -24.935864456777928
010200211 10 1 -24.971272140578694
122102220 01 0 1.002372762612706
101102220 12 0 1.003533924128597
222102220 00 1 -24.03932397899801
102102220 02 1 -24.07338607034006
101100220 20 1 -24.10747227643704
102202122 21 0 2.010496677958046
220212222 10 0 0.5145597030982083
220011222 21 0 0.515153711364025
220011102 22 0 0.5157480622939681
210011100 00 0 6.146602549419041
220012222 12 1 -48.51516795382452
220011202 20 1 -24.78040391363338
220011100 01 1 -24.81534279391105
120222222 01 0 1.5198386458079003
100222122 11 0 1.5215881002194327
100222222 20 1 -23.882475509860576
100202122 10 1 -23.916077300303282
210212202 10 0 2.031441867529594
010011102 22 0 2.0361091649404965
220212202 01 1 -25.48476412472094
010012102 12 1 -25.556350505548238
002222211 11 0 2.547706335347469
002102211 12 0 2.550623834490507
002222221 21 1 -25.123835592958137
002202211 10 1 -25.159010717238356
002100211 02 1 -25.194210448111242
222122022 01 0 13.249473455565212
202112022 22 0 3.0668836009753115
202112010 12 0 8.186077823527494
201110010 00 0 8.195390165496642
202122022 11 1 -24.760493771220172
202112020 21 1 -49.861945923345615
202110010 02 1 -49.931318541923055
110222202 12 0 4.087837300970263
110220102 11 0 4.092491826412819
120222202 01 1 -23.896127547922084
110220202 20 1 -23.92939747434727
110200102 10 1 -23.96269054506909
222122220 01 0 11.439152241010639
202112220 20 0 4.611020960868666
202122220 11 1 -25.530742718341546
220222221 01 0 9.608432743570217
200221221 11 0 5.640648423921515
200101221 20 0 5.647038282852999
200222221 12 1 -24.669904547384466
200201221 10 1 -24.70406155893677
220011222 20 0 4.662831094863468
220011012 00 0 4.668101318907296
220011022 21 1 -23.802520691029763
202122222 11 0 6.610520769101497
102102222 12 0 3.1816645572800715
102100221 20 0 3.1852525632620634
101100021 21 0 3.18884259122545
202102222 00 1 -23.36413553451099
102100222 22 1 -23.39635081580738
102100021 02 1 -23.428588291579327
022201212 10 0 4.203006038742461
022001112 01 0 4.207732500037637
022202212 12 1 -22.490375006918185
022001212 20 1 -22.521300235314232
002001112 22 1 -22.552246710861347
212222022 00 0 11.459557504627426
012222021 02 0 5.225301447358968
010222011 10 0 5.231164337722442
012222022 22 1 -23.61695065486196
010222021 21 1 -23.64933591078407
222100221 01 0 4.245406676055589
202100121 21 0 4.250159439944415
222100222 22 1 -22.711431387919855
202100221 20 1 -22.74251100301604
222012222 21 0 6.109141293401015
222012102 22 0 5.316613581678352
222011100 00 0 2.765275375634205
012011100 02 0 2.768362481590501
222012202 20 1 -22.30063561224403
222012100 12 1 -22.33109055661356
022011100 01 1 -22.361566282248432
022212222 12 0 13.193076479375879
022210212 10 0 12.751135646746942
022210222 21 1 -53.25900171795429
022010212 01 1 -42.888952265703296
102122022 21 0 4.796968723509905
102121002 11 0 4.802303133688343
202122022 00 1 -22.51015131971555
102122002 12 1 -22.54074615318145
221222022 01 0 3.312418059065675
201212022 21 0 3.3160954587926206
201112002 00 0 8.24041087585534
001112001 12 0 8.24900684846971
201222022 11 1 -22.09792758313676
201212002 10 1 -22.127901031822933
001112002 22 1 -35.67534688651509
120220212 10 0 4.337839922054337
120010212 22 0 4.34263974456089
120220222 21 1 -21.215233236599563
120020212 11 1 -21.243931553558554
212012202 00 0 3.3537356364988917
222012202 01 1 -20.2986818505469
012012202 20 1 -20.32608472538999
222210222 00 0 4.3670574191861995
122202222 22 0 7.413309947948398
112202220 12 0 8.95824473371457
112200120 10 0 5.3955616213529325
122202220 01 1 -22.500331828626138
112200220 20 1 -22.530564048030257
222200211 10 0 4.410064426859442
212222220 00 0 7.222685280056097
012212220 02 0 3.4212971321621177
010212120 10 0 3.425045471658843
010212220 20 1 -20.67128143753684
010012120 21 1 -20.69894457453963
222221220 21 0 14.966280797027803
221221200 00 0 3.9406806790177407
021211200 10 0 3.9449886105671688
222221200 02 1 -22.255669480941815
021221200 11 1 -22.285393243214244
221022222 20 0 14.132691437111676
211022022 00 0 9.391413396808394
221022022 01 1 -26.77744920951877
200222121 12 0 3.978498544203888
200222221 20 1 -20.426304256397792
200220121 21 1 -20.453475925169144
122220222 10 0 4.989339038641579
112020222 11 0 4.994763706942985
122020222 01 1 -21.510533016800903
211022202 22 0 4.007793642430851
211012200 20 0 4.012141668845572
221022202 01 1 -20.565009840135552
211022200 11 1 -20.592275345713684
220122222 21 0 7.997961237597805
220122102 01 0 3.02194521539683
200112102 00 0 3.0252166037531794
220122202 20 1 -19.64420978376004
200122102 11 1 -19.670202780962263
122202120 10 0 2.031793757542321
121002120 12 0 2.0339885116438023
122202220 20 1 -18.719594830234954
122002120 02 1 -18.7443153225311
012022122 12 0 0.5384151157881588
012020121 21 0 0.5389954607913494
011020101 11 0 0.5395761183962158
012022222 20 1 -18.289850055742733
012020122 22 1 -18.313955292080717
012020101 02 1 -18.33807640279232
202202211 10 0 1.544551852675626
202001211 00 0 1.5462122146656114
202202212 22 1 -17.383732937087068
202002211 12 1 -17.406583717318412
122012100 01 0 2.557163652416357
112200210 20 0 3.572430431669661
212202220 00 1 -19.57746845321871
112200220 21 1 -19.603068278471948
112200010 02 1 -19.628684830170958
210222222 00 0 17.460718275547304
010221222 22 0 4.088179197329625
010211220 10 0 4.092545743557653
010221220 11 1 -21.2089042979331
010011220 20 1 -21.23654705068334
220221222 20 0 10.510651708789007
120221022 21 0 5.113237795361838
120121002 22 0 5.11868465281368
220221022 00 1 -20.28928070142814
120221002 10 1 -20.315673258900777
222022212 20 0 4.127457141602303
222022011 00 0 4.131846885659696
222022012 22 1 -19.3659090589105
012222222 12 0 2.640095406605994
012120222 20 0 2.642898799460421
012120021 11 0 2.645703679920502
011100021 21 0 2.6485100479862336
012220222 10 1 -18.91231903819648
012120022 22 1 -18.93684068105199
012100021 02 1 -18.961378210945316
222210021 00 0 3.6601202555997396
021210021 10 0 3.663994423368395
222220021 11 1 -18.007910259355562
022210021 02 1 -18.03119885732286
222212022 00 0 2.669632505227397
022212022 10 1 -17.075235552216316
221222220 11 0 3.1817923813242075
221202120 10 0 3.185149587507324
221001120 01 0 3.1885085639019772
221002120 12 1 -18.6667088498628
201001120 00 1 -18.69074065793158
112022022 22 0 4.205124224959064
122022022 01 1 -17.7362766510892
112022020 02 1 -17.759066596250836
222221202 01 0 11.07388734938523
202211202 00 0 5.221557124683096
002211102 22 0 5.227040513252247
202221202 11 1 -18.80725942571285
002211202 20 1 -18.831379024935252
002211100 10 1 -18.85551408048526
012222012 10 0 6.246658376176468
012222022 21 1 -19.90639301947939
222121200 00 0 5.263161616449682
222221200 10 1 -18.954777882666257
022121200 11 1 -18.97899350189381
102021222 11 0 5.7838740610355845
102001212 02 0 5.789916237757173
102001222 21 1 -20.554929413282057
100001212 22 1 -20.581122375790525
010122222 12 0 6.318288869071786
010120221 20 0 6.324872133922615
010222222 10 1 -40.05376611299183
010120222 22 1 -20.15534374282632
010120021 11 1 -20.180962226091612
202211220 10 0 6.855401000862793
202011120 00 0 6.862525345407729
002011110 02 0 6.869653389949829
202221220 11 1 -19.728440887915607
202011220 20 1 -19.753469037493396
002011120 21 1 -19.778513052776166
200211222 20 0 7.894175795418106
200212222 12 1 -18.826113827227392
200211022 21 1 -18.84993680975733
010122222 21 0 8.431073812666774
010122102 12 0 8.439794860765192
010120102 11 1 -20.474337755924747
222222102 10 0 8.969596637592524
222021102 11 0 8.978855575440834
212001102 02 0 8.988119289630566
210001101 00 0 8.997387780161722
222022102 12 1 -20.02219706145442
222001102 01 1 -20.0474059945095
210001102 22 1 -20.07263078722677
212022222 21 0 9.519541380912871
212022201 12 0 9.529342709870935
212010201 02 0 9.539149081961991
222022222 01 1 -19.594734864632432
212022202 22 1 -19.619359097031804
212020201 11 1 -19.643998792057495
210010201 20 1 -19.66865394970949
022221222 21 0 10.570655011759914
022221201 10 0 10.581510625947695
022221202 22 1 -18.715501243590232
221222220 01 0 9.612058562123595
201122220 11 0 9.621909505430237
201101220 00 0 16.478311211602627
201222220 10 1 -17.78337756261547
201102220 12 1 -17.805613731200594
022221012 11 0 8.658290750087732
022201011 02 0 8.667141545063355
022201012 22 1 -16.8686544275898
021022221 20 0 7.6906543599224095
221202222 20 0 6.704308753024586
221202021 10 0 6.711141169144902
211002021 00 0 6.717977064978037
221202022 22 1 -14.945406310382607
221002021 01 1 -14.964000904305292
222212022 10 0 5.72962263643243
222011022 02 0 5.735449864773356
210011022 00 0 5.741280054856765
222012022 12 1 -13.998737211545265
220011022 01 1 -14.016121546674832
121001022 22 0 4.760563329541497
221022022 00 1 -13.048439651051421
121002022 12 1 -13.064613730256625
121001020 01 1 -13.080797827473106
122221200 20 0 5.778094833472305
222221200 00 1 -14.115672855177227
022222221 02 0 4.787771985087
020222211 11 0 4.7926142320444285
020201211 20 0 4.7974589264352465
020222221 21 1 -13.148117302537093
020202211 12 1 -13.164354556072196
011222220 12 0 3.8089750954936052
011220120 21 0 3.812817693075781
012222220 02 1 -12.194389987989952
011220220 20 1 -12.20942159209552
011220100 11 1 -12.224462454965552
021210222 21 0 4.827383589495529
021110202 22 0 4.8322437790589055
022210222 02 1 -13.257035010253453
021210202 10 1 -13.273336312138769
021110200 20 1 -13.289647630184993
120222222 11 0 5.843984578864325
120202122 12 0 5.849859405916282
120202222 20 1 -14.324757316291292
120200122 10 1 -14.342328314107988
212201022 21 0 6.870517427081274
211201002 22 0 6.87741034606305
212201002 02 1 -15.398785776309492
221022201 00 0 5.8951000586994
011022201 20 0 5.901002536486152
021022201 01 1 -14.451673833819642
201122022 21 0 4.416721443554275
202122022 02 1 -13.983325623515883
201122002 11 1 -14.000383658677524
001222212 11 0 5.441806791612057
001201212 22 0 5.447230969487828
001202212 12 1 -13.065062361566541
010222122 21 0 3.961522483352872
010221102 22 0 3.965463316218786
010211100 10 0 3.969406108236011
010222222 20 1 -12.593205612826885
010222102 12 1 -12.608502551122921
010221100 11 1 -12.623808774358736
210122202 11 0 4.984229086159748
110102202 22 0 4.98917498422928
220122202 01 1 -23.29022481716462
210102202 00 1 -11.666141275079529
110102200 20 1 -11.680269207512346
221222202 12 0 6.0010582650071935
211220202 11 0 6.007004321878107
211200102 10 0 6.012953323070319
221220202 01 1 -12.71097202728673
211200202 20 1 -12.726337359250605
122022222 22 0 5.022879960883667
122012220 02 0 5.027846961777661
122022220 11 1 -11.754678949784044
222202122 00 0 3.542263148823735
012202122 21 0 3.545759090529427
011202102 12 0 3.5492567564973654
022202122 01 1 -11.29364100917737
012202102 02 1 -11.307243707142803
011200102 10 1 -11.320854592106713
201222222 11 0 4.561731513986161
201202212 22 0 4.566222512005149
201102210 00 0 4.570715719617258
201202222 21 1 -10.345694185031373
212222202 10 0 3.5777412284348338
212022102 12 0 3.581256572097485
212010102 00 0 3.5847736419293788
212022202 20 1 -9.380607151531443
212020102 11 1 -9.391858253550783
021010212 01 0 4.602788452249751
022010212 02 1 -10.440526135514618
001010212 20 1 -10.453011068492758
222012222 22 0 5.1152334121629055
222012120 02 0 5.120239757263053
210012120 21 0 5.125248551052418
222012220 20 1 -11.979203044431163
220012120 01 1 -11.993502300746627
210012100 12 1 -12.007810086293413
222221022 11 0 5.6437055779015175
222101022 21 0 5.649215663565992
221101002 00 0 5.6547284377328655
222201022 10 1 -11.532877680531046
222101002 02 1 -11.546611383012717
122022021 21 0 6.6797325334423245
112022001 12 0 6.686235071420429
222022021 00 1 -10.585481989652212
122022001 01 1 -10.59805755372286
112020001 02 1 -10.610640583251552
222122202 02 0 7.202650654066771
210122202 00 0 7.209652015164138
010122201 12 0 7.216656777457084
010122202 22 1 -12.151404808654636
021122202 11 0 7.748590751165814
222220122 02 0 9.767464103912195
220220112 10 0 8.789084116121193
120020112 22 0 8.797582142326494
220220122 21 1 -10.744041121390593
220020112 00 1 -10.756714716421662
202212222 02 0 7.812657213032234
200112222 00 0 7.82020020772988
200212222 10 1 -9.77972582804536
202121220 11 0 6.83995457887196
202122220 12 1 -8.800408331664917
202101220 02 1 -8.810758708108644
102221202 22 0 5.8634473104419165
102121200 20 0 5.869086595819771
202221202 00 1 -7.82912615316866
102221200 10 1 -7.838317964708529
222021222 02 0 5.378009412873849
120001212 22 0 4.388302113950439
120001110 01 0 4.392512525906867
220021222 21 1 -7.353200758532294
220001212 00 1 -7.361818631521041
120001210 20 1 -7.370441551580351
220221012 22 0 5.408034261778983
210221010 11 0 5.413213130777752
220221022 21 1 -6.385360613337801
220221010 01 1 -6.392826687664664
202102122 02 0 3.4357197723322317
200102121 12 0 3.4389989129448004
202102222 20 1 -4.415721167919427
200102122 22 1 -4.42086919565831
200100121 00 1 -4.426020222539481
200212212 12 0 4.451708996385501
200110212 22 0 4.455949728697025
200212222 21 1 -5.438660917668567
200210212 10 1 -5.444986780370602
101222220 21 0 3.4658262172908865
101212200 20 0 3.4691215118205383
101222200 11 1 -4.460497045227875
221100222 01 0 2.476164402977302
201100122 21 0 2.4785142623022542
201100222 20 1 -3.472551017102099
222022221 20 0 1.48131979158099
221022021 00 0 1.4827235534464047
222022021 02 1 -2.478281145000339
202122012 02 0 -0.014959811982620086
200112012 22 0 -0.014973961721230777
100112010 12 0 -0.014988118148444363
202122022 21 1 -1.9805496887971303
200122012 11 1 -1.9828386798673998
200112010 00 1 -1.9851289929076783
120220122 21 0 0.9878055799484596
220220122 00 1 -0.9874041168450709
120220102 11 1 -0.988542662863913
212220222 00 0 1.9924900262243028
012220221 20 0 1.9943675196666635
012210021 10 0 1.9962458972594566
012220222 22 1 -1.9942663838227825
012220021 11 1 -1.9965606216357932
120021222 20 0 0.9990608124490777
110021022 11 0 1.0
220021222 00 1 -0.9988528822280351
120021022 01 1 -1.0
220211202 10 0 -0.5625
120011202 20 0 -1.0
